FANN_FLO_2.1
num_layers=3
learning_rate=0.700000
connection_rate=1.000000
network_type=0
learning_momentum=0.000000
training_algorithm=2
train_error_function=1
train_stop_function=0
cascade_output_change_fraction=0.010000
quickprop_decay=-0.000100
quickprop_mu=1.750000
rprop_increase_factor=1.200000
rprop_decrease_factor=0.500000
rprop_delta_min=0.000000
rprop_delta_max=50.000000
rprop_delta_zero=0.100000
cascade_output_stagnation_epochs=12
cascade_candidate_change_fraction=0.010000
cascade_candidate_stagnation_epochs=12
cascade_max_out_epochs=150
cascade_min_out_epochs=50
cascade_max_cand_epochs=150
cascade_min_cand_epochs=50
cascade_num_candidate_groups=2
bit_fail_limit=3.49999994039535522461e-01
cascade_candidate_limit=1.00000000000000000000e+03
cascade_weight_multiplier=4.00000005960464477539e-01
cascade_activation_functions_count=10
cascade_activation_functions=3 5 7 8 10 11 14 15 16 17 
cascade_activation_steepnesses_count=4
cascade_activation_steepnesses=2.50000000000000000000e-01 5.00000000000000000000e-01 7.50000000000000000000e-01 1.00000000000000000000e+00 
layer_sizes=27 27 4 
scale_included=0
neurons (num_inputs, activation_function, activation_steepness)=(0, 0, 0.00000000000000000000e+00) (0, 0, 0.00000000000000000000e+00) (0, 0, 0.00000000000000000000e+00) (0, 0, 0.00000000000000000000e+00) (0, 0, 0.00000000000000000000e+00) (0, 0, 0.00000000000000000000e+00) (0, 0, 0.00000000000000000000e+00) (0, 0, 0.00000000000000000000e+00) (0, 0, 0.00000000000000000000e+00) (0, 0, 0.00000000000000000000e+00) (0, 0, 0.00000000000000000000e+00) (0, 0, 0.00000000000000000000e+00) (0, 0, 0.00000000000000000000e+00) (0, 0, 0.00000000000000000000e+00) (0, 0, 0.00000000000000000000e+00) (0, 0, 0.00000000000000000000e+00) (0, 0, 0.00000000000000000000e+00) (0, 0, 0.00000000000000000000e+00) (0, 0, 0.00000000000000000000e+00) (0, 0, 0.00000000000000000000e+00) (0, 0, 0.00000000000000000000e+00) (0, 0, 0.00000000000000000000e+00) (0, 0, 0.00000000000000000000e+00) (0, 0, 0.00000000000000000000e+00) (0, 0, 0.00000000000000000000e+00) (0, 0, 0.00000000000000000000e+00) (0, 0, 0.00000000000000000000e+00) (27, 4, 5.00000000000000000000e-01) (27, 4, 5.00000000000000000000e-01) (27, 4, 5.00000000000000000000e-01) (27, 4, 5.00000000000000000000e-01) (27, 4, 5.00000000000000000000e-01) (27, 4, 5.00000000000000000000e-01) (27, 4, 5.00000000000000000000e-01) (27, 4, 5.00000000000000000000e-01) (27, 4, 5.00000000000000000000e-01) (27, 4, 5.00000000000000000000e-01) (27, 4, 5.00000000000000000000e-01) (27, 4, 5.00000000000000000000e-01) (27, 4, 5.00000000000000000000e-01) (27, 4, 5.00000000000000000000e-01) (27, 4, 5.00000000000000000000e-01) (27, 4, 5.00000000000000000000e-01) (27, 4, 5.00000000000000000000e-01) (27, 4, 5.00000000000000000000e-01) (27, 4, 5.00000000000000000000e-01) (27, 4, 5.00000000000000000000e-01) (27, 4, 5.00000000000000000000e-01) (27, 4, 5.00000000000000000000e-01) (27, 4, 5.00000000000000000000e-01) (27, 4, 5.00000000000000000000e-01) (27, 4, 5.00000000000000000000e-01) (27, 4, 5.00000000000000000000e-01) (0, 0, 0.00000000000000000000e+00) (27, 4, 5.00000000000000000000e-01) (27, 4, 5.00000000000000000000e-01) (27, 4, 5.00000000000000000000e-01) (0, 0, 0.00000000000000000000e+00) 
connections (connected_to_neuron, weight)=(0, 2.12456727027893066406e+00) (1, 1.73219478130340576172e+00) (2, 1.14617443084716796875e+00) (3, 2.60973978042602539062e+00) (4, 8.57866168022155761719e-01) (5, 2.03778386116027832031e+00) (6, 6.79512143135070800781e-01) (7, 1.09891295433044433594e+00) (8, 6.91194713115692138672e-01) (9, -7.55560531616210937500e+01) (10, -1.56352157592773437500e+01) (11, 6.36151373386383056641e-01) (12, 2.75592297315597534180e-01) (13, 8.35652470588684082031e-01) (14, 1.23578560352325439453e+00) (15, 4.06013131141662597656e-01) (16, 2.41213951110839843750e+01) (17, 2.62889313697814941406e+00) (18, 1.54589951038360595703e+00) (19, 3.54116344451904296875e+00) (20, 2.41992340087890625000e+01) (21, 2.14825859069824218750e+01) (22, 6.01288652420043945312e+00) (23, 3.99890937805175781250e+01) (24, -6.20406913757324218750e+00) (25, -1.05712776184082031250e+02) (26, 6.98780357837677001953e-01) (0, 1.65449416637420654297e+00) (1, 7.37841892242431640625e+00) (2, 5.05642366409301757812e+00) (3, 1.73754823207855224609e+00) (4, -4.21435642242431640625e+00) (5, 5.05813539028167724609e-01) (6, 2.08215117454528808594e+00) (7, 1.93137054443359375000e+01) (8, 2.42387199401855468750e+00) (9, 1.36692085266113281250e+01) (10, 4.54768791198730468750e+01) (11, -1.21484622955322265625e+01) (12, 3.28283166885375976562e+00) (13, 2.84903311729431152344e+00) (14, 5.39650487899780273438e+00) (15, -2.74072408676147460938e+00) (16, -7.44114351272583007812e+00) (17, -1.02249307632446289062e+01) (18, -2.50642395019531250000e+01) (19, -3.22145223617553710938e-01) (20, 2.99710011482238769531e+00) (21, 3.54808831214904785156e+00) (22, 2.54586219787597656250e+01) (23, 6.12897157669067382812e-01) (24, 1.99755859375000000000e+01) (25, 6.88010931015014648438e+00) (26, 1.85724353790283203125e+00) (0, 1.52127516269683837891e+00) (1, 1.30612671375274658203e+00) (2, 6.14596724510192871094e-01) (3, -1.41653096675872802734e+00) (4, -3.91190958023071289062e+00) (5, 1.16691005229949951172e+00) (6, 5.77763378620147705078e-01) (7, 2.11409211158752441406e+00) (8, 3.14884066581726074219e-01) (9, 9.91495800018310546875e+00) (10, 6.17605590820312500000e+00) (11, -8.07196140289306640625e-01) (12, 6.72419309616088867188e-01) (13, 1.89632132649421691895e-01) (14, 1.26642477512359619141e+00) (15, -2.42430239915847778320e-01) (16, -5.89581489562988281250e+00) (17, -7.20102214813232421875e+00) (18, -7.33052682876586914062e+00) (19, 4.95842218399047851562e-01) (20, 9.09334182739257812500e-01) (21, 3.06242656707763671875e+00) (22, 6.16453437805175781250e+01) (23, 3.07106733322143554688e+00) (24, 2.48906660079956054688e+00) (25, 5.92780151367187500000e+01) (26, 4.72276717424392700195e-01) (0, -7.50028800964355468750e+00) (1, -7.59820022583007812500e+01) (2, -2.26118311285972595215e-01) (3, -6.73148822784423828125e+00) (4, 4.87576818466186523438e+00) (5, 3.79875278472900390625e+00) (6, 1.45438945293426513672e+00) (7, -9.73613381385803222656e-01) (8, 1.36798417568206787109e+00) (9, -3.96057739257812500000e+01) (10, -7.83794555664062500000e+01) (11, 1.25404129028320312500e+01) (12, 9.75979328155517578125e-01) (13, 3.75291585922241210938e+00) (14, -1.66423511505126953125e+01) (15, 1.87495625019073486328e+00) (16, 3.64026603698730468750e+01) (17, 3.63222765922546386719e+00) (18, 2.93581676483154296875e+00) (19, -1.96459472179412841797e+00) (20, 2.42473201751708984375e+01) (21, 2.14233036041259765625e+01) (22, 4.19680404663085937500e+00) (23, 2.19143199920654296875e+01) (24, -5.83487892150878906250e+01) (25, -1.61373653411865234375e+01) (26, 5.36546289920806884766e-01) (0, -1.14574968814849853516e+00) (1, -2.01716003417968750000e+01) (2, -5.61901688575744628906e-01) (3, -3.46077632904052734375e+00) (4, 1.22278317809104919434e-01) (5, 1.79225832223892211914e-01) (6, 1.57706201076507568359e-01) (7, -1.91661024093627929688e+00) (8, 3.28326344490051269531e-01) (9, -1.08807539939880371094e+00) (10, -4.58249664306640625000e+02) (11, 9.93605017662048339844e-01) (12, 3.81806105375289916992e-01) (13, 2.12697088718414306641e-01) (14, -6.88139581680297851562e+00) (15, 9.37937140464782714844e-01) (16, 9.13196334838867187500e+01) (17, 7.48829394578933715820e-02) (18, 7.38748192787170410156e-01) (19, -6.98782491683959960938e+00) (20, 2.46973133087158203125e+01) (21, 5.46261253356933593750e+01) (22, 1.61173939704895019531e+00) (23, 7.31401290893554687500e+01) (24, -3.18615665435791015625e+01) (25, 2.76848137378692626953e-01) (26, 2.14475512504577636719e-01) (0, 8.09052562713623046875e+00) (1, -7.02608108520507812500e+01) (2, -2.68993198871612548828e-01) (3, -2.63686060905456542969e+00) (4, 4.62176084518432617188e+00) (5, 1.83172070980072021484e+00) (6, 1.14996087551116943359e+00) (7, -7.02416915893554687500e+01) (8, 1.89681875705718994141e+00) (9, 8.59972119331359863281e-01) (10, 2.08021106719970703125e+01) (11, 1.28762979507446289062e+01) (12, 5.11026191711425781250e+00) (13, 1.70569264888763427734e+00) (14, -2.63449406623840332031e+00) (15, 5.46035957336425781250e+00) (16, 3.67372283935546875000e+01) (17, 7.47920465469360351562e+00) (18, 7.36549425125122070312e+00) (19, -1.65532398223876953125e+01) (20, 1.02494955062866210938e+01) (21, 7.90665721893310546875e+00) (22, 6.54064607620239257812e+00) (23, 1.27349138259887695312e+01) (24, -3.41234245300292968750e+01) (25, 6.34852933883666992188e+00) (26, 1.13218080997467041016e+00) (0, 2.01995205879211425781e+00) (1, 7.19012832641601562500e+00) (2, 5.42186832427978515625e+00) (3, 5.10195159912109375000e+00) (4, -7.21671104431152343750e-01) (5, 3.45358920097351074219e+00) (6, 1.23960125446319580078e+00) (7, 3.89254531860351562500e+01) (8, 1.56527733802795410156e+00) (9, 5.72799634933471679688e+00) (10, 5.21061515808105468750e+00) (11, -2.91607265472412109375e+01) (12, 7.86008119583129882812e-01) (13, 1.73222184181213378906e+00) (14, 5.07410240173339843750e+00) (15, -1.85366077423095703125e+01) (16, -5.22475166320800781250e+01) (17, -7.87349557876586914062e+00) (18, -1.28134810924530029297e+00) (19, 1.16386663913726806641e+00) (20, 2.47819352149963378906e+00) (21, 3.02511310577392578125e+00) (22, 2.56232757568359375000e+01) (23, -1.41600728034973144531e+00) (24, 3.01991963386535644531e+00) (25, 2.78428983688354492188e+00) (26, 7.54731833934783935547e-01) (0, -6.70745611190795898438e-01) (1, 3.41808050870895385742e-01) (2, -2.86015570163726806641e-01) (3, -5.94560861587524414062e-01) (4, -5.09131717681884765625e+00) (5, -1.78626507520675659180e-01) (6, -2.23760694265365600586e-01) (7, 4.67482246458530426025e-02) (8, -9.86610427498817443848e-02) (9, 4.59372550249099731445e-01) (10, 4.11096954345703125000e+00) (11, 4.99716177582740783691e-02) (12, -2.45859250426292419434e-01) (13, 1.25805675983428955078e-01) (14, -5.24665564298629760742e-02) (15, -6.30058145523071289062e+00) (16, -4.90733814239501953125e+00) (17, -7.34437513351440429688e+00) (18, -6.98390674591064453125e+00) (19, -2.73888301849365234375e+00) (20, 1.27450287342071533203e+00) (21, 1.43690884113311767578e+00) (22, -9.66529846191406250000e+00) (23, 1.80113494396209716797e+00) (24, 9.29346561431884765625e-01) (25, 4.20029580593109130859e-01) (26, 1.28971874713897705078e-01) (0, 2.84850656986236572266e-01) (1, 1.54209530353546142578e+00) (2, 1.58185064792633056641e+00) (3, 8.90182495117187500000e-01) (4, -8.98810267448425292969e-01) (5, 1.84461700916290283203e+00) (6, 5.00629067420959472656e-01) (7, 9.72293472290039062500e+00) (8, -1.06403350830078125000e+00) (9, -1.70081448554992675781e+00) (10, 1.68227043151855468750e+01) (11, -1.93306732177734375000e+00) (12, -7.60860085487365722656e-01) (13, 6.77426576614379882812e-01) (14, 4.57979500293731689453e-01) (15, -4.29592247009277343750e+01) (16, -1.44943904876708984375e+00) (17, -2.73029875755310058594e+00) (18, -1.67334866523742675781e+00) (19, 1.04390227794647216797e+00) (20, -8.73857080936431884766e-01) (21, 3.44780492782592773438e+00) (22, 3.50124597549438476562e+00) (23, 2.02214777469635009766e-01) (24, 1.16935348510742187500e+00) (25, -2.44597291946411132812e+00) (26, 4.40857499837875366211e-01) (0, -9.76733267307281494141e-02) (1, 2.27932453155517578125e+00) (2, 5.54082393646240234375e+00) (3, 5.05141067504882812500e+00) (4, -2.55522310733795166016e-01) (5, 5.73592519760131835938e+00) (6, -3.16628888249397277832e-02) (7, 2.66885032653808593750e+01) (8, -1.88876509666442871094e-01) (9, -7.93948507308959960938e+00) (10, -2.47454833984375000000e+01) (11, -4.32760059833526611328e-01) (12, -1.44677534699440002441e-01) (13, -1.24749332666397094727e-01) (14, -8.77316668629646301270e-02) (15, -3.66200675964355468750e+01) (16, -2.55212116241455078125e+00) (17, -5.18296051025390625000e+00) (18, -4.78606373071670532227e-01) (19, 4.58138942718505859375e+00) (20, 2.62007236480712890625e+00) (21, 1.64193177223205566406e+00) (22, 3.95191764831542968750e+00) (23, 8.00202465057373046875e+00) (24, -3.05703729391098022461e-01) (25, -4.03216838836669921875e+00) (26, -1.93040817975997924805e-02) (0, 1.68480956554412841797e+00) (1, 1.46290481090545654297e+00) (2, 5.07972002029418945312e-01) (3, -1.41954314708709716797e+00) (4, -3.58694839477539062500e+00) (5, 7.19437360763549804688e-01) (6, 5.44302582740783691406e-01) (7, 8.34142804145812988281e-01) (8, 1.33391663432121276855e-01) (9, 2.35236978530883789062e+00) (10, 3.95203232765197753906e+00) (11, -1.89344674348831176758e-01) (12, 6.88629150390625000000e-01) (13, 2.56713032722473144531e-01) (14, 3.12713503837585449219e+00) (15, -5.90259313583374023438e-01) (16, 2.74401128292083740234e-01) (17, -3.64253139495849609375e+00) (18, -4.08784389495849609375e+00) (19, -3.21960997581481933594e+00) (20, 2.68188714981079101562e+00) (21, 2.88115572929382324219e+00) (22, 5.70036659240722656250e+01) (23, 4.51666879653930664062e+00) (24, 4.01867437362670898438e+00) (25, 1.36586580276489257812e+01) (26, 2.44220688939094543457e-01) (0, 4.42784404754638671875e+00) (1, -1.57485992431640625000e+02) (2, -1.49664014577865600586e-01) (3, -8.59114837646484375000e+00) (4, 8.75910520553588867188e-01) (5, 1.12109470367431640625e+00) (6, 2.50361680984497070312e+00) (7, -7.13434829711914062500e+01) (8, 8.11638069152832031250e+00) (9, 1.01951303482055664062e+01) (10, 1.20884542465209960938e+01) (11, 8.20106220245361328125e+00) (12, 5.14247989654541015625e+00) (13, 2.00961565971374511719e+00) (14, 3.96685743331909179688e+00) (15, 8.71206569671630859375e+00) (16, 5.24246635437011718750e+01) (17, 1.52122583389282226562e+01) (18, 1.53634061813354492188e+01) (19, -1.65715541839599609375e+01) (20, 1.81241436004638671875e+01) (21, 7.23164796829223632812e+00) (22, 1.46597738265991210938e+01) (23, 1.75853767395019531250e+01) (24, -6.61664533615112304688e+00) (25, 2.12229862213134765625e+01) (26, 7.92983591556549072266e-01) (0, 2.02808117866516113281e+00) (1, 6.93668460845947265625e+00) (2, 5.37516593933105468750e+00) (3, 1.98147654533386230469e+00) (4, -6.94558191299438476562e+00) (5, -3.24965089559555053711e-01) (6, 3.36237645149230957031e+00) (7, 1.82664337158203125000e+01) (8, 2.83322024345397949219e+00) (9, 1.43461828231811523438e+01) (10, 4.80190734863281250000e+01) (11, -6.66691112518310546875e+00) (12, 3.49452638626098632812e+00) (13, 2.30164265632629394531e+00) (14, 5.04359817504882812500e+00) (15, -6.50031685829162597656e-01) (16, -2.55176811218261718750e+01) (17, -1.14819746017456054688e+01) (18, -9.44129467010498046875e+00) (19, -4.48184072971343994141e-01) (20, 1.27881181240081787109e+00) (21, 2.20564031600952148438e+00) (22, 2.55575942993164062500e+01) (23, 1.12314200401306152344e+00) (24, 1.81672058105468750000e+01) (25, 7.45794820785522460938e+00) (26, 1.27120184898376464844e+00) (0, -1.96709799766540527344e+00) (1, -6.89388656616210937500e+01) (2, 5.10805211961269378662e-02) (3, -1.44182729721069335938e+00) (4, 6.89324021339416503906e-01) (5, 6.13801288604736328125e+00) (6, 5.48672020435333251953e-01) (7, -1.67382681369781494141e+00) (8, 5.94301939010620117188e-01) (9, -7.99875183105468750000e+01) (10, -1.03678817749023437500e+02) (11, 1.08636057376861572266e+00) (12, 3.21935355663299560547e-01) (13, 5.51357865333557128906e-01) (14, -2.81872749328613281250e+01) (15, 7.50485122203826904297e-01) (16, 8.84608993530273437500e+01) (17, 1.34150362014770507812e+00) (18, 7.73758769035339355469e-01) (19, -9.57793593406677246094e-01) (20, 5.18997535705566406250e+01) (21, 4.52244415283203125000e+01) (22, 3.61073231697082519531e+00) (23, 5.30496101379394531250e+01) (24, -6.89042587280273437500e+01) (25, -2.39823436737060546875e+01) (26, 3.91061276197433471680e-01) (0, 7.49130010604858398438e-01) (1, 1.72082221508026123047e+00) (2, 5.25577008724212646484e-01) (3, 2.36339960247278213501e-02) (4, -1.16492910385131835938e+01) (5, 1.98931023478507995605e-01) (6, 5.76906144618988037109e-01) (7, 6.30589842796325683594e-01) (8, 6.80614948272705078125e-01) (9, 3.63556938171386718750e+01) (10, 4.65856170654296875000e+01) (11, -8.10370826721191406250e+00) (12, 9.18572545051574707031e-01) (13, 4.74118560552597045898e-01) (14, 8.79702270030975341797e-01) (15, 1.91623079776763916016e+00) (16, -3.67360210418701171875e+00) (17, -6.94494771957397460938e+00) (18, -1.98884639739990234375e+01) (19, -6.88664484024047851562e+00) (20, 5.80185317993164062500e+00) (21, 1.57177209854125976562e+00) (22, 3.39068489074707031250e+01) (23, 4.60782289505004882812e+00) (24, 1.86794452667236328125e+01) (25, 8.54396743774414062500e+01) (26, 6.98116242885589599609e-01) (0, 2.81959593296051025391e-01) (1, -3.46316680908203125000e+01) (2, 1.71893566846847534180e-01) (3, -9.23229598999023437500e+00) (4, 3.31257820129394531250e+00) (5, -3.28833580017089843750e+00) (6, 7.20771253108978271484e-01) (7, -1.31722656250000000000e+02) (8, 1.29260551929473876953e+00) (9, 9.55529022216796875000e+00) (10, 1.79183757305145263672e+00) (11, 1.47221815586090087891e+00) (12, 9.34676945209503173828e-01) (13, 6.97697103023529052734e-01) (14, 9.25440192222595214844e-02) (15, 5.03681612014770507812e+00) (16, 9.64171524047851562500e+01) (17, 1.99198837280273437500e+01) (18, 1.70877532958984375000e+01) (19, -3.96290302276611328125e+00) (20, -8.74880552291870117188e-01) (21, 5.65711832046508789062e+00) (22, 2.99907779693603515625e+01) (23, 3.60884513854980468750e+01) (24, -6.66539371013641357422e-03) (25, 3.13507137298583984375e+01) (26, 8.05031061172485351562e-01) (0, -4.34255391359329223633e-01) (1, -3.96992826461791992188e+00) (2, -2.57596254348754882812e-01) (3, -2.40315422415733337402e-01) (4, 9.39434587955474853516e-01) (5, 1.02565402984619140625e+01) (6, -9.24875140190124511719e-02) (7, -1.44204437732696533203e+00) (8, 3.68694663047790527344e-01) (9, -6.68027305603027343750e+00) (10, -3.81449737548828125000e+01) (11, 7.66308784484863281250e-01) (12, 2.47722845524549484253e-02) (13, 3.73296201229095458984e-01) (14, -2.63669204711914062500e+00) (15, 1.07586371898651123047e+00) (16, 8.67765808105468750000e+01) (17, 8.24689292907714843750e+00) (18, 3.66603755950927734375e+00) (19, -2.29308557510375976562e+00) (20, 2.42860279083251953125e+01) (21, 2.16434230804443359375e+01) (22, 1.91323244571685791016e+00) (23, 2.15111198425292968750e+01) (24, -4.71817703247070312500e+01) (25, -1.69202291965484619141e+00) (26, 6.70736372470855712891e-01) (0, 1.14247798919677734375e+00) (1, 5.84432721138000488281e-01) (2, 3.02378833293914794922e-01) (3, -1.01013934612274169922e+00) (4, 1.30822372436523437500e+00) (5, -1.21120297908782958984e+00) (6, 1.17585802078247070312e+00) (7, -1.62760181427001953125e+01) (8, 1.21435129642486572266e+00) (9, 3.39274024963378906250e+01) (10, -2.56760978698730468750e+01) (11, 1.03105211257934570312e+00) (12, 1.36712753772735595703e+00) (13, 1.06700837612152099609e+00) (14, 8.12860906124114990234e-01) (15, 1.52747321128845214844e+00) (16, 8.46972808837890625000e+01) (17, 3.94475078582763671875e+00) (18, -2.04988741874694824219e+00) (19, -3.10897235870361328125e+01) (20, 2.42477931976318359375e+01) (21, 2.41478133201599121094e+00) (22, 4.77016677856445312500e+01) (23, 8.65269756317138671875e+00) (24, 3.52125108242034912109e-01) (25, 5.57124443054199218750e+01) (26, 1.01208305358886718750e+00) (0, 4.91904228925704956055e-01) (1, 7.19815909862518310547e-01) (2, 6.05084359645843505859e-01) (3, -1.28324180841445922852e-01) (4, -4.11869668960571289062e+00) (5, 4.30146366357803344727e-01) (6, 6.16777837276458740234e-01) (7, 1.47439865395426750183e-03) (8, 5.54345369338989257812e-01) (9, 6.62764358520507812500e+01) (10, 2.53885517120361328125e+01) (11, -1.33201038837432861328e+00) (12, 1.36650717258453369141e+00) (13, 3.14068794250488281250e-01) (14, 7.74834871292114257812e-01) (15, 9.42980945110321044922e-01) (16, -3.86467695236206054688e+00) (17, -1.44292974472045898438e+00) (18, -2.63442707061767578125e+01) (19, -6.82131338119506835938e+00) (20, 6.41825723648071289062e+00) (21, 1.90761184692382812500e+00) (22, 4.84654579162597656250e+01) (23, 2.86749839782714843750e+00) (24, 3.81967830657958984375e+00) (25, 6.48611602783203125000e+01) (26, 4.04711425304412841797e-01) (0, 8.44659423828125000000e+00) (1, 3.80161643028259277344e+00) (2, 5.66858291625976562500e+00) (3, 1.65976393222808837891e+00) (4, 4.20257854461669921875e+00) (5, 8.40081596374511718750e+00) (6, 3.95348501205444335938e+00) (7, 9.87866306304931640625e+00) (8, 3.82128524780273437500e+00) (9, -7.05464248657226562500e+01) (10, -9.26745605468750000000e+01) (11, 3.96044969558715820312e+00) (12, -1.19631118774414062500e+01) (13, 1.56846451759338378906e+00) (14, 3.71903800964355468750e+00) (15, 1.94289817810058593750e+01) (16, 3.55642852783203125000e+01) (17, 3.97022342681884765625e+00) (18, 2.37558531761169433594e+00) (19, 4.87593936920166015625e+00) (20, 1.52328205108642578125e+01) (21, 1.30092582702636718750e+01) (22, 4.00082635879516601562e+00) (23, 2.55375423431396484375e+01) (24, -5.86208000183105468750e+01) (25, -6.98066558837890625000e+01) (26, 1.64234340190887451172e+00) (0, -5.53606891632080078125e+00) (1, -8.34712524414062500000e+01) (2, 6.77684903144836425781e-01) (3, -2.56076908111572265625e+00) (4, 2.60285854339599609375e+00) (5, 4.44165039062500000000e+00) (6, 1.62354040145874023438e+00) (7, -8.68015289306640625000e-01) (8, 5.04939556121826171875e+00) (9, -4.07875251770019531250e+01) (10, -8.40712280273437500000e+01) (11, 1.34121599197387695312e+01) (12, 5.14228296279907226562e+00) (13, 5.25358295440673828125e+00) (14, -1.72803630828857421875e+01) (15, 5.04172801971435546875e+00) (16, 5.60121498107910156250e+01) (17, 6.31360292434692382812e+00) (18, 5.17962741851806640625e+00) (19, -4.80265808105468750000e+00) (20, 1.82858371734619140625e+01) (21, 7.29350757598876953125e+00) (22, -2.41701573133468627930e-01) (23, 2.68206615447998046875e+01) (24, -6.63552474975585937500e+01) (25, -4.71577072143554687500e+00) (26, 1.28061628341674804688e+00) (0, 1.49763107299804687500e+00) (1, 1.29143571853637695312e+00) (2, 2.08186817169189453125e+00) (3, 9.79071497917175292969e-01) (4, 6.54054760932922363281e-01) (5, 2.44312229156494140625e+01) (6, 1.01568961143493652344e+00) (7, 3.93014335632324218750e+01) (8, -1.10540974140167236328e+00) (9, -6.66768341064453125000e+01) (10, -1.42115516662597656250e+01) (11, 9.64344143867492675781e-02) (12, -1.24974977970123291016e+00) (13, 4.54547643661499023438e-01) (14, 2.97765517234802246094e+00) (15, -6.67357254028320312500e+01) (16, -3.15299844741821289062e+00) (17, -1.29901027679443359375e+00) (18, -1.44826337695121765137e-01) (19, 9.31652247905731201172e-01) (20, 6.95120477676391601562e+00) (21, 1.17017250061035156250e+01) (22, 5.50457334518432617188e+00) (23, 3.39689779281616210938e+00) (24, 8.66397571563720703125e+00) (25, -5.44952888488769531250e+01) (26, 1.29667508602142333984e+00) (0, 3.51917564868927001953e-01) (1, 1.32842683792114257812e+00) (2, 1.29522216320037841797e+00) (3, 8.77690732479095458984e-01) (4, 4.58059906959533691406e-01) (5, 1.01394903659820556641e+00) (6, 5.69075107574462890625e-01) (7, 6.53857612609863281250e+00) (8, -1.85186341404914855957e-01) (9, -2.22197704315185546875e+01) (10, -8.47272586822509765625e+00) (11, -8.66173028945922851562e-01) (12, 1.24898619949817657471e-01) (13, 5.00079572200775146484e-01) (14, 5.42183697223663330078e-01) (15, -3.68216171264648437500e+01) (16, -2.25533142089843750000e+01) (17, 3.11994031071662902832e-02) (18, 7.76418387889862060547e-01) (19, 1.08162081241607666016e+00) (20, -6.46996068954467773438e+00) (21, 4.38104963302612304688e+00) (22, 8.15250492095947265625e+00) (23, -1.45903472900390625000e+01) (24, 2.00833392143249511719e+00) (25, -7.22959976196289062500e+01) (26, 5.74908971786499023438e-01) (0, -4.92162895202636718750e+00) (1, -2.65592079162597656250e+01) (2, 1.46999269723892211914e-01) (3, -1.15435707569122314453e+00) (4, 6.85672104358673095703e-01) (5, 9.33023095130920410156e-01) (6, 5.22813260555267333984e-01) (7, -5.11025476455688476562e+00) (8, 6.20746314525604248047e-01) (9, -6.62759323120117187500e+01) (10, -7.84716033935546875000e+01) (11, 9.69654738903045654297e-01) (12, 4.78723108768463134766e-01) (13, 6.69179618358612060547e-01) (14, -3.17430553436279296875e+01) (15, 1.38499712944030761719e+00) (16, 8.35871124267578125000e+01) (17, 1.04384279251098632812e+00) (18, 1.04672515392303466797e+00) (19, -1.16778588294982910156e+00) (20, 5.19344596862792968750e+01) (21, 4.52093505859375000000e+01) (22, 3.19520068168640136719e+00) (23, 5.30325355529785156250e+01) (24, -5.59297637939453125000e+01) (25, -2.40711116790771484375e+01) (26, 4.32570278644561767578e-01) (0, -4.05480384826660156250e+00) (1, -2.68849868774414062500e+01) (2, 1.45140916109085083008e-01) (3, -1.02918946743011474609e+00) (4, 7.45805740356445312500e-01) (5, 7.38534832000732421875e+00) (6, 4.22144562005996704102e-01) (7, -1.48553884029388427734e+00) (8, 6.91187024116516113281e-01) (9, -5.32144546508789062500e+01) (10, -1.42748901367187500000e+02) (11, 7.84336328506469726562e-01) (12, 3.20527374744415283203e-01) (13, 5.88744163513183593750e-01) (14, -2.92530059814453125000e+01) (15, 9.80521738529205322266e-01) (16, 9.54886398315429687500e+01) (17, 1.85664165019989013672e+00) (18, 9.94623780250549316406e-01) (19, 5.04210114479064941406e-01) (20, 3.61295204162597656250e+01) (21, 4.50895156860351562500e+01) (22, 3.56190705299377441406e+00) (23, 7.30260696411132812500e+01) (24, -6.88144760131835937500e+01) (25, -1.55334014892578125000e+01) (26, 3.49884033203125000000e-01) (0, 1.99384486675262451172e+00) (1, 1.79673633575439453125e+01) (2, 5.36437797546386718750e+00) (3, 5.08433294296264648438e+00) (4, -1.85802793502807617188e+00) (5, 5.73289728164672851562e+00) (6, 1.30370104312896728516e+00) (7, 1.60299339294433593750e+01) (8, -3.27073335647583007812e-01) (9, 4.28388738632202148438e+00) (10, 4.63864946365356445312e+00) (11, -1.95533275604248046875e+01) (12, 1.19923722743988037109e+00) (13, 1.12069010734558105469e+00) (14, 5.10332536697387695312e+00) (15, -2.23174953460693359375e+01) (16, -5.23035621643066406250e+01) (17, -1.53739700317382812500e+01) (18, -1.42859530448913574219e+00) (19, 1.84368622303009033203e+00) (20, 2.93832182884216308594e+00) (21, 4.10329675674438476562e+00) (22, 2.55905189514160156250e+01) (23, -4.12982612848281860352e-01) (24, 7.35018253326416015625e+00) (25, 9.03168141841888427734e-01) (26, 1.16201424598693847656e+00) (27, 4.53427076339721679688e-01) (28, 3.62872838973999023438e-01) (29, -1.59622639417648315430e-01) (30, -8.92899394035339355469e-01) (31, -1.66285917162895202637e-01) (32, -1.67657637596130371094e+00) (33, 4.35105383396148681641e-01) (34, 3.37823666632175445557e-02) (35, 9.23315703868865966797e-01) (36, 4.14736717939376831055e-01) (37, -1.65766909718513488770e-01) (38, -1.74662375450134277344e+00) (39, 4.27413552999496459961e-01) (40, -3.75418514013290405273e-01) (41, -1.62609970569610595703e+00) (42, -2.14221453666687011719e+00) (43, -3.72819393873214721680e-01) (44, -1.72542119026184082031e+00) (45, -5.27423620223999023438e-01) (46, 7.43444383144378662109e-01) (47, -1.65923154354095458984e+00) (48, 2.24553251266479492188e+00) (49, 2.13517212867736816406e+00) (50, -3.67729157209396362305e-01) (51, -2.21096292138099670410e-01) (52, 3.64844024181365966797e-01) (53, 1.55947065353393554688e+00) (27, 2.57976204156875610352e-01) (28, -1.81336760520935058594e+00) (29, -4.22002643346786499023e-01) (30, 9.22222435474395751953e-01) (31, 3.09188514947891235352e-01) (32, 9.28845942020416259766e-01) (33, -1.83261370658874511719e+00) (34, -8.56559202075004577637e-02) (35, -4.67729449272155761719e-01) (36, 2.11195796728134155273e-02) (37, -2.44031220674514770508e-01) (38, 3.54516476392745971680e-01) (39, -1.78385519981384277344e+00) (40, 9.22967016696929931641e-01) (41, -1.05984818935394287109e+00) (42, 3.50557774305343627930e-01) (43, 3.16742509603500366211e-01) (44, 3.44934612512588500977e-02) (45, -4.68415558338165283203e-01) (46, 7.06453979015350341797e-01) (47, 3.63266855478286743164e-01) (48, 4.37972880899906158447e-02) (49, 1.71267628669738769531e-01) (50, 8.96834075450897216797e-01) (51, 9.11049664020538330078e-01) (52, -1.81470155715942382812e+00) (53, 2.12203070521354675293e-01) (27, -1.07437169551849365234e+00) (28, 2.92729467153549194336e-01) (29, 8.09344410896301269531e-01) (30, -1.27244865894317626953e+00) (31, -5.45762777328491210938e-02) (32, 3.46513718366622924805e-01) (33, 1.00251182913780212402e-01) (34, 1.21492229402065277100e-01) (35, 4.80414256453514099121e-02) (36, -2.30723440647125244141e-01) (37, 2.88279682397842407227e-01) (38, 2.62135177850723266602e-01) (39, 3.41006547212600708008e-01) (40, -8.71396183967590332031e-01) (41, 2.70002698898315429688e+00) (42, 1.19256722927093505859e+00) (43, -8.78883957862854003906e-01) (44, 1.13300478458404541016e+00) (45, 1.12029778957366943359e+00) (46, -2.57116913795471191406e+00) (47, -1.26871311664581298828e+00) (48, -2.55713915824890136719e+00) (49, -6.36537909507751464844e-01) (50, -1.30967271327972412109e+00) (51, -1.28023540973663330078e+00) (52, 1.28336295485496520996e-01) (53, 2.68958926200866699219e-01) 
