FANN_FLO_2.1
num_layers=3
learning_rate=0.700000
connection_rate=1.000000
network_type=0
learning_momentum=0.000000
training_algorithm=2
train_error_function=1
train_stop_function=0
cascade_output_change_fraction=0.010000
quickprop_decay=-0.000100
quickprop_mu=1.750000
rprop_increase_factor=1.200000
rprop_decrease_factor=0.500000
rprop_delta_min=0.000000
rprop_delta_max=50.000000
rprop_delta_zero=0.100000
cascade_output_stagnation_epochs=12
cascade_candidate_change_fraction=0.010000
cascade_candidate_stagnation_epochs=12
cascade_max_out_epochs=150
cascade_min_out_epochs=50
cascade_max_cand_epochs=150
cascade_min_cand_epochs=50
cascade_num_candidate_groups=2
bit_fail_limit=3.49999994039535522461e-01
cascade_candidate_limit=1.00000000000000000000e+03
cascade_weight_multiplier=4.00000005960464477539e-01
cascade_activation_functions_count=10
cascade_activation_functions=3 5 7 8 10 11 14 15 16 17 
cascade_activation_steepnesses_count=4
cascade_activation_steepnesses=2.50000000000000000000e-01 5.00000000000000000000e-01 7.50000000000000000000e-01 1.00000000000000000000e+00 
layer_sizes=27 27 4 
scale_included=0
neurons (num_inputs, activation_function, activation_steepness)=(0, 0, 0.00000000000000000000e+00) (0, 0, 0.00000000000000000000e+00) (0, 0, 0.00000000000000000000e+00) (0, 0, 0.00000000000000000000e+00) (0, 0, 0.00000000000000000000e+00) (0, 0, 0.00000000000000000000e+00) (0, 0, 0.00000000000000000000e+00) (0, 0, 0.00000000000000000000e+00) (0, 0, 0.00000000000000000000e+00) (0, 0, 0.00000000000000000000e+00) (0, 0, 0.00000000000000000000e+00) (0, 0, 0.00000000000000000000e+00) (0, 0, 0.00000000000000000000e+00) (0, 0, 0.00000000000000000000e+00) (0, 0, 0.00000000000000000000e+00) (0, 0, 0.00000000000000000000e+00) (0, 0, 0.00000000000000000000e+00) (0, 0, 0.00000000000000000000e+00) (0, 0, 0.00000000000000000000e+00) (0, 0, 0.00000000000000000000e+00) (0, 0, 0.00000000000000000000e+00) (0, 0, 0.00000000000000000000e+00) (0, 0, 0.00000000000000000000e+00) (0, 0, 0.00000000000000000000e+00) (0, 0, 0.00000000000000000000e+00) (0, 0, 0.00000000000000000000e+00) (0, 0, 0.00000000000000000000e+00) (27, 4, 5.00000000000000000000e-01) (27, 4, 5.00000000000000000000e-01) (27, 4, 5.00000000000000000000e-01) (27, 4, 5.00000000000000000000e-01) (27, 4, 5.00000000000000000000e-01) (27, 4, 5.00000000000000000000e-01) (27, 4, 5.00000000000000000000e-01) (27, 4, 5.00000000000000000000e-01) (27, 4, 5.00000000000000000000e-01) (27, 4, 5.00000000000000000000e-01) (27, 4, 5.00000000000000000000e-01) (27, 4, 5.00000000000000000000e-01) (27, 4, 5.00000000000000000000e-01) (27, 4, 5.00000000000000000000e-01) (27, 4, 5.00000000000000000000e-01) (27, 4, 5.00000000000000000000e-01) (27, 4, 5.00000000000000000000e-01) (27, 4, 5.00000000000000000000e-01) (27, 4, 5.00000000000000000000e-01) (27, 4, 5.00000000000000000000e-01) (27, 4, 5.00000000000000000000e-01) (27, 4, 5.00000000000000000000e-01) (27, 4, 5.00000000000000000000e-01) (27, 4, 5.00000000000000000000e-01) (27, 4, 5.00000000000000000000e-01) (27, 4, 5.00000000000000000000e-01) (0, 0, 0.00000000000000000000e+00) (27, 4, 5.00000000000000000000e-01) (27, 4, 5.00000000000000000000e-01) (27, 4, 5.00000000000000000000e-01) (0, 0, 0.00000000000000000000e+00) 
connections (connected_to_neuron, weight)=(0, -2.04019856452941894531e+00) (1, 1.02620959281921386719e+00) (2, 1.99202096462249755859e+00) (3, -2.04667019844055175781e+00) (4, -1.36934268474578857422e+00) (5, 1.02271642684936523438e+01) (6, 1.99719393253326416016e+00) (7, 1.09671653747558593750e+02) (8, -1.25149190425872802734e+00) (9, 3.09490895271301269531e+00) (10, 3.48776173591613769531e+00) (11, 2.90990757942199707031e+00) (12, 1.56696960330009460449e-01) (13, -5.80579161643981933594e-01) (14, -2.78079956769943237305e-01) (15, -1.42390584945678710938e+01) (16, -3.22220653295516967773e-01) (17, -1.84729499816894531250e+01) (18, -3.13968968391418457031e+00) (19, -1.08796942234039306641e+00) (20, 1.08945732116699218750e+01) (21, 6.27843713760375976562e+00) (22, 9.69901943206787109375e+00) (23, 5.96585512161254882812e+00) (24, 6.48852348327636718750e+00) (25, 4.95578110218048095703e-01) (26, -2.92493015527725219727e-01) (0, 5.59331941604614257812e+00) (1, 7.91818809509277343750e+00) (2, 7.52932119369506835938e+00) (3, 3.62096548080444335938e+00) (4, 2.00186347961425781250e+00) (5, 2.13573989868164062500e+01) (6, 9.22089993953704833984e-01) (7, 5.24019393920898437500e+01) (8, -2.59008336067199707031e+00) (9, -2.99554462432861328125e+01) (10, -1.78308048248291015625e+01) (11, 3.61403673887252807617e-01) (12, -1.13892202377319335938e+01) (13, 9.12737190723419189453e-01) (14, 3.04019004106521606445e-01) (15, -3.75784301757812500000e+01) (16, -1.34002411365509033203e+00) (17, -1.00359830856323242188e+01) (18, 7.03952729701995849609e-01) (19, 4.12796080112457275391e-01) (20, 3.90438818931579589844e+00) (21, 1.53332118988037109375e+01) (22, -6.44186973571777343750e-01) (23, 4.94404983520507812500e+00) (24, -1.24632472991943359375e+01) (25, -4.99700355529785156250e+01) (26, 7.56433427333831787109e-01) (0, 1.08193290233612060547e+00) (1, 1.43056955337524414062e+01) (2, 9.84275341033935546875e+00) (3, 1.26390480995178222656e+00) (4, -6.00869238376617431641e-01) (5, -6.74203693866729736328e-01) (6, -7.16692090034484863281e-01) (7, 1.32152338027954101562e+01) (8, -3.07535433769226074219e+00) (9, -1.16539583206176757812e+01) (10, -1.03430519104003906250e+01) (11, -7.16175174713134765625e+00) (12, -1.31345272064208984375e+00) (13, 2.54557467997074127197e-03) (14, 8.16654324531555175781e-01) (15, -2.33669757843017578125e+00) (16, -6.39989376068115234375e+00) (17, -5.14543354511260986328e-01) (18, 1.33226200938224792480e-01) (19, 2.68158698081970214844e+00) (20, -4.38586654663085937500e+01) (21, -1.04324712753295898438e+01) (22, 6.06648027896881103516e-01) (23, -2.00145397186279296875e+01) (24, 7.21761167049407958984e-01) (25, -7.26338500976562500000e+01) (26, 1.71606409549713134766e+00) (0, 2.50831699371337890625e+00) (1, 6.71876573562622070312e+00) (2, 9.20653724670410156250e+00) (3, 6.14175415039062500000e+00) (4, -7.99136829376220703125e+00) (5, -9.98648166656494140625e-01) (6, 7.69910097122192382812e-01) (7, 1.32320280075073242188e+01) (8, -1.36848461627960205078e+00) (9, 1.27143919467926025391e+00) (10, 1.05432462692260742188e+01) (11, -8.31557178497314453125e+00) (12, -2.05173015594482421875e-01) (13, -1.33740508556365966797e+00) (14, 3.88172078132629394531e+00) (15, -7.96675920486450195312e+00) (16, -4.96404695510864257812e+00) (17, -8.75231075286865234375e+00) (18, -8.58180046081542968750e+00) (19, 1.20076951980590820312e+01) (20, -1.06348609924316406250e+00) (21, -3.87904286384582519531e-01) (22, -4.94335442781448364258e-02) (23, -5.19013881683349609375e-01) (24, 9.64985275268554687500e+00) (25, 1.32028770446777343750e+00) (26, 9.91631209850311279297e-01) (0, 2.47682857513427734375e+00) (1, 7.97337293624877929688e+00) (2, 7.51408863067626953125e+00) (3, 2.63364624977111816406e+00) (4, -2.33217620849609375000e+00) (5, 1.02453660964965820312e+00) (6, 1.74484297633171081543e-01) (7, 5.93076934814453125000e+01) (8, -9.01312232017517089844e-01) (9, 7.03850936889648437500e+00) (10, 1.39786052703857421875e+00) (11, -2.25445842742919921875e+00) (12, -3.30925732851028442383e-01) (13, -1.63735020905733108521e-02) (14, 7.43623447418212890625e+00) (15, -3.36258773803710937500e+01) (16, -1.92296993732452392578e+00) (17, -2.26663398742675781250e+01) (18, -3.16333937644958496094e+00) (19, 3.40999650955200195312e+00) (20, 1.59908890724182128906e-01) (21, -2.24904227256774902344e+00) (22, 7.60612440109252929688e+00) (23, -1.41993725299835205078e+00) (24, 2.47033996582031250000e+01) (25, 1.33764410018920898438e+00) (26, 1.93281829357147216797e-01) (0, -1.04748241603374481201e-01) (1, -1.67675840854644775391e+00) (2, -7.79915824532508850098e-02) (3, -1.46498605608940124512e-01) (4, 1.43605685234069824219e+00) (5, 7.33869791030883789062e-01) (6, 5.58680176734924316406e-01) (7, -3.59611898660659790039e-01) (8, 3.93844068050384521484e-01) (9, -2.61631927490234375000e+01) (10, -7.50857315063476562500e+01) (11, 6.86827230453491210938e+00) (12, -4.48707252740859985352e-01) (13, 5.61655879020690917969e-01) (14, -2.88930726051330566406e+00) (15, 1.41085553169250488281e+00) (16, 6.35724067687988281250e+00) (17, 6.51474595069885253906e-01) (18, 1.93411386013031005859e+00) (19, -4.77604418992996215820e-02) (20, 1.75411313772201538086e-01) (21, 1.15940260887145996094e+00) (22, 8.19448828697204589844e-01) (23, 8.87636125087738037109e-01) (24, -5.17744255065917968750e+01) (25, -1.92443656921386718750e+01) (26, 2.83980518579483032227e-01) (0, 4.69706386327743530273e-01) (1, 4.19254827499389648438e+00) (2, 1.03098130226135253906e+00) (3, 2.74649918079376220703e-01) (4, -6.62440204620361328125e+00) (5, -2.32818379998207092285e-01) (6, 1.36645317077636718750e+00) (7, 6.34623003005981445312e+00) (8, 6.51368916034698486328e-01) (9, 5.94299087524414062500e+01) (10, 8.64963760375976562500e+01) (11, -1.71939623355865478516e+00) (12, 1.07880353927612304688e+00) (13, -7.10324943065643310547e-02) (14, 1.49228799343109130859e+00) (15, -1.21163785457611083984e-01) (16, -2.85995388031005859375e+01) (17, -6.86378335952758789062e+00) (18, -6.76419878005981445312e+00) (19, 1.31348943710327148438e+00) (20, 2.11024928092956542969e+00) (21, -2.56379437446594238281e+00) (22, 5.68678436279296875000e+01) (23, 3.90144735574722290039e-01) (24, 3.63076934814453125000e+01) (25, 4.84431266784667968750e+01) (26, 8.00263226032257080078e-01) (0, -5.60737419128417968750e+00) (1, -2.38807506561279296875e+01) (2, 3.75964283943176269531e-01) (3, -1.72641229629516601562e+00) (4, 1.48795020580291748047e+00) (5, 2.90301108360290527344e+00) (6, 6.25088512897491455078e-01) (7, -4.26830828189849853516e-01) (8, 9.67474937438964843750e-01) (9, -1.28299808502197265625e+01) (10, -2.84055786132812500000e+02) (11, 7.55264186859130859375e+00) (12, 2.36082807183265686035e-01) (13, 4.53435510396957397461e-01) (14, -7.74807882308959960938e+00) (15, 1.28321254253387451172e+00) (16, 1.95020568847656250000e+02) (17, 2.09072256088256835938e+00) (18, 9.19036746025085449219e-01) (19, -5.09128808975219726562e-01) (20, 1.59321870803833007812e+01) (21, 1.78791503906250000000e+01) (22, 1.32230246067047119141e+00) (23, 1.58617877960205078125e+01) (24, -1.37800308227539062500e+02) (25, 2.06091046333312988281e+00) (26, 1.79883897304534912109e-01) (0, -1.21625512838363647461e-01) (1, -2.39150834083557128906e+00) (2, 9.05901864171028137207e-02) (3, -6.73087358474731445312e-01) (4, 4.33824300765991210938e-01) (5, 4.33042913675308227539e-01) (6, 2.02466234564781188965e-01) (7, -2.94422596693038940430e-01) (8, 5.72640895843505859375e-01) (9, -2.77506027221679687500e+01) (10, -1.07417091369628906250e+02) (11, 1.50934534072875976562e+01) (12, -3.67457300424575805664e-01) (13, 4.73688304424285888672e-01) (14, -4.50213336944580078125e+00) (15, 3.56867051124572753906e+00) (16, 1.56879262924194335938e+01) (17, 3.25720739364624023438e+00) (18, 1.23349022865295410156e+00) (19, -3.42212468385696411133e-01) (20, 4.04337465763092041016e-01) (21, 1.09207248687744140625e+00) (22, 1.21077132225036621094e+00) (23, 8.50958645343780517578e-01) (24, -5.16737022399902343750e+01) (25, -1.91971969604492187500e+01) (26, -7.06602707505226135254e-02) (0, 5.33596277236938476562e-01) (1, 8.96358394622802734375e+00) (2, 1.04260039329528808594e+00) (3, 2.85378187894821166992e-01) (4, -1.05861320495605468750e+01) (5, 1.13800609111785888672e+00) (6, 7.98792660236358642578e-01) (7, 4.75055847167968750000e+01) (8, 4.74743664264678955078e-01) (9, 5.98052444458007812500e+01) (10, 1.59972000122070312500e+02) (11, -4.30066204071044921875e+00) (12, 8.63011896610260009766e-01) (13, 2.19376727938652038574e-01) (14, 1.39234805107116699219e+00) (15, -1.55961084365844726562e+00) (16, -1.23886499404907226562e+01) (17, -8.67753410339355468750e+00) (18, -8.68927478790283203125e+00) (19, 6.40451073646545410156e-01) (20, 1.11751532554626464844e+00) (21, -2.38708567619323730469e+00) (22, 5.69536590576171875000e+01) (23, 1.20672129094600677490e-01) (24, 4.74533233642578125000e+01) (25, 2.92685623168945312500e+01) (26, 6.53628230094909667969e-01) (0, -3.36732506752014160156e+00) (1, -6.03597640991210937500e-01) (2, -1.02599549293518066406e+00) (3, -4.79653596878051757812e+00) (4, 5.81957757472991943359e-01) (5, -3.29878211021423339844e+00) (6, 7.74416446685791015625e-01) (7, -6.15751266479492187500e+00) (8, 7.56904244422912597656e-01) (9, 3.25157380104064941406e+00) (10, 2.60184931755065917969e+00) (11, 7.78898477554321289062e-01) (12, 9.45707440376281738281e-01) (13, 5.63433647155761718750e-01) (14, -4.15855550765991210938e+00) (15, 2.26797294616699218750e+00) (16, 2.58699371337890625000e+02) (17, 1.15235090255737304688e+00) (18, 5.00288426876068115234e-01) (19, -6.00077772140502929688e+00) (20, 1.41631860733032226562e+01) (21, 3.13981952667236328125e+01) (22, 2.30083608627319335938e+00) (23, 5.74531173706054687500e+01) (24, 4.98469054698944091797e-01) (25, 1.69901618957519531250e+01) (26, 3.98537516593933105469e-01) (0, -3.92908430099487304688e+00) (1, -8.20634245872497558594e-01) (2, -6.02312862873077392578e-01) (3, -5.81829309463500976562e+00) (4, 2.83367156982421875000e-01) (5, -1.75867331027984619141e+00) (6, 4.90988790988922119141e-01) (7, -2.04466342926025390625e+00) (8, 3.92331182956695556641e-01) (9, 2.84445261955261230469e+00) (10, 4.93623828887939453125e+00) (11, 1.63662314414978027344e+00) (12, 6.23588025569915771484e-01) (13, 4.64502930641174316406e-01) (14, -2.36039137840270996094e+00) (15, 2.14976787567138671875e+00) (16, 4.38452026367187500000e+02) (17, 1.55363750457763671875e+00) (18, 3.30392599105834960938e-01) (19, -1.64185009002685546875e+01) (20, 1.33237562179565429688e+01) (21, 4.94845581054687500000e+01) (22, -9.78201389312744140625e-01) (23, 8.14447937011718750000e+01) (24, 4.39665243029594421387e-02) (25, 1.69907970428466796875e+01) (26, 3.72357249259948730469e-01) (0, 1.52752959728240966797e+00) (1, -1.73867797851562500000e+01) (2, -5.76110407710075378418e-02) (3, 7.04273760318756103516e-01) (4, 1.23490691184997558594e+00) (5, 7.32122182846069335938e-01) (6, 1.18866193294525146484e+00) (7, -1.80245208740234375000e+01) (8, 1.28382790088653564453e+00) (9, 1.28130722045898437500e+00) (10, 5.28446078300476074219e-01) (11, 9.46196746826171875000e+00) (12, 1.50910115242004394531e+00) (13, 1.16197061538696289062e+00) (14, 1.43851816654205322266e+00) (15, 2.12926506996154785156e+00) (16, 4.59918441772460937500e+01) (17, 2.74767994880676269531e+00) (18, 2.85139703750610351562e+00) (19, -2.60176067352294921875e+01) (20, 3.79441165924072265625e+00) (21, 4.31332975625991821289e-01) (22, 4.69970643520355224609e-01) (23, 5.76783800125122070312e+00) (24, -3.53231906890869140625e-01) (25, 2.16246557235717773438e+00) (26, 1.19994997978210449219e+00) (0, -1.42584383487701416016e+00) (1, -9.38693523406982421875e-01) (2, 6.46098613739013671875e-01) (3, -8.25582817196846008301e-02) (4, 1.50749623775482177734e+00) (5, 1.12963712215423583984e+00) (6, 8.75359058380126953125e-01) (7, -1.94164884090423583984e+00) (8, 5.53617954254150390625e-01) (9, -3.87653427124023437500e+01) (10, -1.99544692993164062500e+02) (11, 7.07861709594726562500e+00) (12, 1.74317762255668640137e-01) (13, -2.45694760233163833618e-02) (14, -1.77375450134277343750e+01) (15, 3.99582672119140625000e+01) (16, 9.64291763305664062500e+01) (17, 1.96988785266876220703e+00) (18, 1.73792496323585510254e-01) (19, -7.04732418060302734375e-01) (20, 1.05299520492553710938e+01) (21, 6.64030408859252929688e+00) (22, 3.14349865913391113281e+00) (23, 1.44820232391357421875e+01) (24, -1.02781120300292968750e+02) (25, 2.93691372871398925781e+00) (26, -3.31137366592884063721e-02) (0, 1.73128694295883178711e-01) (1, 2.80581712722778320312e-01) (2, 2.06841564178466796875e+00) (3, 6.52517497539520263672e-01) (4, 5.40823888778686523438e+00) (5, 5.34500885009765625000e+00) (6, 1.04359304904937744141e+00) (7, 5.09341239929199218750e+00) (8, 6.05285882949829101562e-01) (9, -2.84947376251220703125e+01) (10, -2.31423377990722656250e+01) (11, 5.34340143203735351562e+00) (12, -7.00869977474212646484e-01) (13, 6.44651591777801513672e-01) (14, -1.23383808135986328125e+00) (15, -1.01399040222167968750e+01) (16, 1.09954385757446289062e+01) (17, 4.27461385726928710938e+00) (18, 5.02035140991210937500e+00) (19, 7.84883081912994384766e-01) (20, 4.78083896636962890625e+00) (21, 1.26615362167358398438e+01) (22, 2.42243313789367675781e+00) (23, 1.48293981552124023438e+01) (24, -2.60020999908447265625e+01) (25, -9.50977706909179687500e+01) (26, 3.58174294233322143555e-01) (0, 2.12078765034675598145e-01) (1, -1.55056886672973632812e+01) (2, -4.00160980224609375000e+00) (3, -1.95250689983367919922e+00) (4, 1.28862714767456054688e+00) (5, -3.64359307289123535156e+00) (6, 1.34702050685882568359e+00) (7, -7.46273269653320312500e+01) (8, 1.11026668548583984375e+00) (9, 4.96035194396972656250e+00) (10, 1.43189346790313720703e+00) (11, 4.19144392013549804688e+00) (12, 2.49468922615051269531e+00) (13, 1.17882895469665527344e+00) (14, -1.14063084125518798828e+00) (15, 4.24308061599731445312e+00) (16, 2.00090694427490234375e+00) (17, 1.96745872497558593750e+00) (18, 1.94217002391815185547e+00) (19, -5.80723094940185546875e+00) (20, -2.93336749076843261719e-01) (21, 6.63051748275756835938e+00) (22, -1.25904226303100585938e+00) (23, -6.66476726531982421875e-01) (24, -7.45902681350708007812e+00) (25, 2.12442302703857421875e+00) (26, 1.42155563831329345703e+00) (0, -3.78635573387145996094e+00) (1, -5.77377281188964843750e+01) (2, 2.98488467931747436523e-01) (3, -6.18249177932739257812e-01) (4, 6.76937282085418701172e-01) (5, 2.44407844543457031250e+00) (6, 4.61182296276092529297e-01) (7, -9.31894332170486450195e-02) (8, 6.84690296649932861328e-01) (9, -3.88325195312500000000e+01) (10, -2.83995941162109375000e+02) (11, 7.56239986419677734375e+00) (12, 1.55189543962478637695e-01) (13, 6.86121523380279541016e-01) (14, -7.68751764297485351562e+00) (15, 3.14384722709655761719e+00) (16, 1.94919067382812500000e+02) (17, 1.10286295413970947266e+00) (18, 7.54874646663665771484e-01) (19, -1.68874502182006835938e-01) (20, 1.59649343490600585938e+01) (21, 1.79105453491210937500e+01) (22, 2.21378087997436523438e+00) (23, 1.59631681442260742188e+01) (24, -1.37749710083007812500e+02) (25, 5.97918128967285156250e+00) (26, 3.92213553190231323242e-01) (0, 1.57503616809844970703e+00) (1, 6.05782890319824218750e+00) (2, 2.06609034538269042969e+00) (3, -1.48154899477958679199e-01) (4, -1.79128634929656982422e+00) (5, -4.82389301061630249023e-01) (6, 2.31968498229980468750e+00) (7, 1.09782087802886962891e+00) (8, 2.14210724830627441406e+00) (9, 3.64863395690917968750e+01) (10, 3.05567336082458496094e+00) (11, -8.92001748085021972656e-01) (12, 1.50668315887451171875e+01) (13, 7.60514438152313232422e-01) (14, 2.71545267105102539062e+00) (15, 1.84640967845916748047e+00) (16, -1.88473477959632873535e-01) (17, -4.06412696838378906250e+00) (18, -3.47493124008178710938e+00) (19, -2.54741287231445312500e+01) (20, 5.36133050918579101562e+00) (21, -1.67165958881378173828e+00) (22, 8.86227893829345703125e+00) (23, 1.41102385520935058594e+00) (24, 3.03148651123046875000e+00) (25, 7.76485671997070312500e+01) (26, 6.48209333419799804688e-01) (0, -2.17868685722351074219e+00) (1, -4.95819330215454101562e-01) (2, 1.75655961036682128906e-01) (3, -4.57200527191162109375e-01) (4, 5.02961754798889160156e-01) (5, 9.95451509952545166016e-01) (6, 1.50967493653297424316e-01) (7, -1.00072793662548065186e-01) (8, 4.16099011898040771484e-01) (9, -2.50994071960449218750e+01) (10, -8.50285415649414062500e+01) (11, 1.60406665802001953125e+01) (12, -4.32667016983032226562e-01) (13, 5.55912256240844726562e-01) (14, -4.36918735504150390625e+00) (15, 6.28709554672241210938e-01) (16, 1.55721502304077148438e+01) (17, 3.13753461837768554688e+00) (18, 1.21178722381591796875e+00) (19, -6.20544135570526123047e-01) (20, 1.03708112239837646484e+00) (21, 2.44113659858703613281e+00) (22, 2.69787836074829101562e+00) (23, 2.10266351699829101562e+00) (24, -5.49912567138671875000e+01) (25, -1.91648826599121093750e+01) (26, 1.94858714938163757324e-01) (0, -6.89337921142578125000e+00) (1, -2.99506211280822753906e+00) (2, -7.47507452964782714844e-01) (3, -6.85637283325195312500e+00) (4, 6.13259077072143554688e-01) (5, 1.72424688935279846191e-01) (6, 1.96265995502471923828e-01) (7, -6.28643846511840820312e+00) (8, 4.00276511907577514648e-01) (9, 2.30613446235656738281e+00) (10, 2.89136981964111328125e+00) (11, 9.07442808151245117188e-01) (12, 4.59236741065979003906e-01) (13, 3.59941601753234863281e-01) (14, -6.83163452148437500000e+00) (15, 1.09175956249237060547e+00) (16, 2.46590682983398437500e+02) (17, 6.12731516361236572266e-01) (18, 3.32269787788391113281e-01) (19, -7.55717706680297851562e+00) (20, 2.79489383697509765625e+01) (21, 5.68393287658691406250e+01) (22, -2.05410337448120117188e+00) (23, 8.07624664306640625000e+01) (24, -6.08300495147705078125e+00) (25, 6.86901521682739257812e+00) (26, -1.46315291523933410645e-01) (0, -4.46152162551879882812e+00) (1, -2.19608726501464843750e+01) (2, -1.97162836790084838867e-01) (3, -7.19892978668212890625e-01) (4, 1.14814293384552001953e+00) (5, -3.74597199261188507080e-02) (6, 4.21300947666168212891e-01) (7, -7.54486799240112304688e-01) (8, 1.02635252475738525391e+00) (9, -1.65820884704589843750e+01) (10, -1.17160850524902343750e+02) (11, 9.90132045745849609375e+00) (12, 1.70256942510604858398e-01) (13, 6.34747743606567382812e-01) (14, -6.49446344375610351562e+00) (15, 1.66970205307006835938e+00) (16, 1.56738691329956054688e+01) (17, 4.05925655364990234375e+00) (18, 3.65847969055175781250e+00) (19, -2.82908648252487182617e-01) (20, 4.17429864406585693359e-01) (21, 1.07251799106597900391e+00) (22, 1.00866281986236572266e+00) (23, 9.87639963626861572266e-01) (24, -5.75531311035156250000e+01) (25, -7.93439006805419921875e+00) (26, 4.53697979450225830078e-01) (0, -2.03317165374755859375e+00) (1, -1.25044763088226318359e+00) (2, -6.75540447235107421875e-01) (3, -1.79785861968994140625e+01) (4, 2.73031651973724365234e-01) (5, -4.11716365814208984375e+00) (6, 5.45661866664886474609e-01) (7, -2.20809292793273925781e+00) (8, 6.01730525493621826172e-01) (9, 1.41211545467376708984e+00) (10, 4.22145128250122070312e-01) (11, 6.63505434989929199219e-01) (12, 1.35653424263000488281e+00) (13, 4.03572857379913330078e-01) (14, 5.26686757802963256836e-02) (15, 1.58512365818023681641e+00) (16, 7.26402832031250000000e+02) (17, 1.66345512866973876953e+00) (18, 6.23283386230468750000e-01) (19, -1.80911426544189453125e+01) (20, 1.29703044891357421875e+01) (21, -3.65181803703308105469e-01) (22, 2.85013122558593750000e+01) (23, 4.91591262817382812500e+01) (24, 3.42990368604660034180e-01) (25, 1.23713096618652343750e+02) (26, 2.53931403160095214844e-01) (0, -5.28006672859191894531e-01) (1, -3.36205601692199707031e-01) (2, -3.64178746938705444336e-01) (3, -6.58114910125732421875e+00) (4, -1.36687487363815307617e-01) (5, -1.33005821704864501953e+00) (6, 6.84829652309417724609e-01) (7, -3.08799743652343750000e+00) (8, 1.16022861003875732422e+00) (9, 3.73244972229003906250e+01) (10, 2.08717842102050781250e+01) (11, 2.78377556800842285156e+00) (12, 1.73241405487060546875e+01) (13, 6.43994152545928955078e-01) (14, 5.06550371646881103516e-02) (15, 1.71406745910644531250e+00) (16, 7.24150085449218750000e+01) (17, 7.34964656829833984375e+00) (18, -3.94366645812988281250e+00) (19, -3.35703887939453125000e+01) (20, 2.03558979034423828125e+01) (21, -5.91918802261352539062e+00) (22, 2.56385021209716796875e+01) (23, 2.03652992248535156250e+01) (24, 5.73521471023559570312e+00) (25, 1.06171501159667968750e+02) (26, 2.06966713070869445801e-01) (0, -2.10457555949687957764e-02) (1, -1.25006079673767089844e+00) (2, 2.09528848528861999512e-01) (3, -2.61918897740542888641e-03) (4, 6.73010408878326416016e-01) (5, 3.10724377632141113281e+00) (6, 1.08503170311450958252e-01) (7, -1.95296313613653182983e-02) (8, 4.51836377382278442383e-01) (9, -2.77304763793945312500e+01) (10, -7.52024917602539062500e+01) (11, 6.91476011276245117188e+00) (12, -5.86793184280395507812e-01) (13, 5.52475690841674804688e-01) (14, -2.88273787498474121094e+00) (15, 2.51324009895324707031e+00) (16, 3.79933471679687500000e+01) (17, 6.81197047233581542969e-01) (18, 6.43307924270629882812e-01) (19, 5.21824181079864501953e-01) (20, 4.70969498157501220703e-01) (21, 1.02518117427825927734e+00) (22, 1.07038509845733642578e+00) (23, 2.11952424049377441406e+00) (24, -5.18402061462402343750e+01) (25, -1.92768516540527343750e+01) (26, 9.42554548382759094238e-02) (0, -5.64363431930541992188e+00) (1, -1.03909187316894531250e+01) (2, -4.54705357551574707031e-01) (3, -5.61286544799804687500e+00) (4, 1.30457603931427001953e+00) (5, 3.79791408777236938477e-01) (6, 4.71172094345092773438e-01) (7, -1.54548606872558593750e+01) (8, 6.55353486537933349609e-01) (9, -1.73153948783874511719e+00) (10, -1.58010215759277343750e+01) (11, 3.44372987747192382812e+00) (12, 6.63299500942230224609e-01) (13, 1.11510074138641357422e+00) (14, -5.68789768218994140625e+00) (15, 1.65563583374023437500e+00) (16, 2.31755889892578125000e+02) (17, 2.03897595405578613281e+00) (18, 2.07445430755615234375e+00) (19, -1.04870281219482421875e+01) (20, 1.59387407302856445312e+01) (21, 1.45084781646728515625e+01) (22, 1.19394814968109130859e+00) (23, 1.46811199188232421875e+01) (24, -9.31461715698242187500e+00) (25, 4.48818588256835937500e+00) (26, 2.27249965071678161621e-01) (0, 6.09101951122283935547e-01) (1, 6.98170840740203857422e-01) (2, 6.44814372062683105469e-01) (3, 5.69850087165832519531e-01) (4, -8.42733442783355712891e-01) (5, 4.78701705932617187500e+01) (6, 3.51910084486007690430e-01) (7, 8.10237655639648437500e+01) (8, -8.97729778289794921875e+00) (9, -4.21644897460937500000e+01) (10, -1.20456447601318359375e+01) (11, -1.00119268894195556641e+00) (12, -7.80793666839599609375e+00) (13, -1.45445972681045532227e-01) (14, 1.12908244132995605469e+00) (15, -4.85210800170898437500e+01) (16, -1.07978881835937500000e+02) (17, -1.10299978256225585938e+01) (18, -7.57389307022094726562e+00) (19, 2.23796200752258300781e+00) (20, 4.61605453491210937500e+00) (21, 1.42569229125976562500e+02) (22, 2.82736492156982421875e+00) (23, 9.90731430053710937500e+00) (24, -1.72261238098144531250e+00) (25, -5.47891540527343750000e+01) (26, -6.10156953334808349609e-02) (27, 2.36050829291343688965e-01) (28, 1.97022104263305664062e+00) (29, 1.36676824092864990234e+00) (30, 1.69273710250854492188e+00) (31, 1.95877861976623535156e+00) (32, 1.07292532920837402344e-01) (33, -7.25634247064590454102e-02) (34, -1.97111189365386962891e-01) (35, 2.09146691486239433289e-03) (36, 2.75940567255020141602e-01) (37, -8.07312548160552978516e-01) (38, -8.81492853164672851562e-01) (39, -1.44724583625793457031e+00) (40, -1.58167108893394470215e-01) (41, 4.11355137825012207031e-01) (42, -4.16496157646179199219e-01) (43, -1.88434749841690063477e-01) (44, -2.15787887573242187500e+00) (45, 1.32534429430961608887e-02) (46, -1.20674979686737060547e+00) (47, -2.47147873044013977051e-01) (48, -1.13393032550811767578e+00) (49, -2.89204978942871093750e+00) (50, 9.62846949696540832520e-02) (51, -4.14722263813018798828e-01) (52, 9.17763948440551757812e-01) (53, 3.37756067514419555664e-01) (27, -5.40910720825195312500e-01) (28, -5.61618581414222717285e-02) (29, 2.00620546936988830566e-01) (30, -1.77115488052368164062e+00) (31, -7.56169438362121582031e-01) (32, 5.00341355800628662109e-01) (33, -1.97028589248657226562e+00) (34, 7.76083111763000488281e-01) (35, 6.41695320606231689453e-01) (36, -2.01369452476501464844e+00) (37, -4.17002588510513305664e-02) (38, 1.97689250111579895020e-01) (39, 5.84764838218688964844e-01) (40, 4.19068068265914916992e-01) (41, 1.21065437793731689453e-01) (42, 1.18312656879425048828e+00) (43, 7.48045206069946289062e-01) (44, -1.34624981880187988281e+00) (45, 4.61492866277694702148e-01) (46, 6.76507472991943359375e-01) (47, 1.12377512454986572266e+00) (48, 3.68665158748626708984e-02) (49, -1.93104714155197143555e-01) (50, 5.10795176029205322266e-01) (51, 7.62984573841094970703e-01) (52, -1.21200963854789733887e-01) (53, -1.31868734955787658691e-01) (27, -4.81611847877502441406e-01) (28, -4.92723608016967773438e+00) (29, 1.07348001003265380859e+00) (30, 5.38223683834075927734e-01) (31, 1.51699379086494445801e-01) (32, -1.29965996742248535156e+00) (33, 9.87613976001739501953e-01) (34, -5.98486483097076416016e-01) (35, -8.56883525848388671875e-01) (36, 9.71407949924468994141e-01) (37, -5.89452125132083892822e-02) (38, -7.68084973096847534180e-02) (39, 5.19210219383239746094e-01) (40, -5.15667259693145751953e-01) (41, -1.43554735183715820312e+00) (42, -6.07988774776458740234e-01) (43, -5.54908692836761474609e-01) (44, 2.04367733001708984375e+00) (45, -8.24304521083831787109e-01) (46, -4.98589634895324707031e-01) (47, -5.46087980270385742188e-01) (48, 8.17925631999969482422e-01) (49, 2.05766439437866210938e+00) (50, -9.21164512634277343750e-01) (51, -9.18834879994392395020e-02) (52, -2.13335847854614257812e+00) (53, 2.78714358806610107422e-01) 
